385659.91105843,579602.9452462738,2602662.194841157,29196.32030447063,1.6366387556856217,-10275305.913265375,-5.460741807573997e-07,3814899.033721358,1678994.9099660602,-9663289.47626073,-447945.06874601555,5962806.102586714,-877708.4348179132,-3656634.952943825,-952969.229900772,-52625400.843799174,-8407918.533481166,-170392.45908919437,25556466.873681914,0.0,35272968.69190432,-79000321.54170689,33512672.72907569,-27950198.504407927,-0.0,128373435.8052245,-22330514.78961774,3239960.5565722394,59442294.02098068,990736.0868062901,15222110.859695995,27574971.43081946,-29187330.78522562,-43183580.992231615,-13563970.44927822,-10251883.005021147,14171370.464736762,40835019.14307132,-26553041.212949492,13850008.703196924,46414465.67099771,-17398114.190635324,-30357907.94993772,-43301354.00070512,-82286259.72718106,0.0,9515392.70837272,-20770003.51730918,-13154875.019304015,12697310.548890468,9618542.447860625,-17703552.27485321,-502253.8505511196,-10124269.275089605,16320789.711808842,22131531.96261443,-8250664.948889677,23620118.325147375,37541935.63977594,-13036825.775617715,-7356795.655297706,20094629.883914027,-16878561.187727973,-1610093.8876565588,-23190089.725253586,-6239598.298024923,-142692170.28726426,-35505644.6956613,-22743236.96078783,-10221385.862975085,-6316372.701823878,11007011.720179144,-24851736.152692527,-36060133.343839586,-8217992.206963731,-13561991.004140474,-2761390.2506955923,-100120474.0369212,-87169172.76599374,-32412728.484029036,-34534659.931917265,-51875719.74118861,21383965.326117724,-87790947.9304976,-6185544.062445724,-23870814.90143294,-34266487.93517256,-46807739.6616182,-6218131.887098662,3767437.165153776,-5330831.960036675,54293649.79685745,-940963.9379827995,-31766685.67102685,3930376.903701605,-17965136.994522978,46876476.77411919,16368977.482734699,25046619.514598113,-12551915.74798146,9168718.428524375,9284964.07450837,5605548.348051193,-25699097.60000206,52557896.99854466,0.0,-25952713.812792126,-38913952.75803289,-14107858.162705613,59186878.17347709,-12913216.426774172,0.0,12478002.35851496,-67052398.304834835,-80619057.83794174,-0.0,53917445.152767785,18243346.56087119,-16751132.387049938,-106428681.91785988,33775136.98606705,0.0,-543198.3138077072,-15180039.949668542,-13756506.53906742,44555758.86883898,-108643554.44909248,-0.0,68121664.68141668,120000414.88573545,-13611149.382361721,90853890.6465354,96580963.76197743,-30895167.17478041,524.1221275189317,80963291.98834911,30009638.467004135,29295049.50180338,10690391.717546754,0.0,-24606759.619879533,0.0,-48440519.89472465,53544559.51945754,0.0,0.0,20416538.452382833