385827.6823379914,579743.4452703325,2597588.2530759913,29195.996822066605,1.6365670138038695,-3577293.742413882,-3577293.74288851,3814210.389192112,1681204.1953464374,-5271811.558685144,-3577293.742897618,5974347.779770767,-5271811.558814822,-3662566.532462306,-953652.3689220967,-52925238.7376743,-8421610.227037938,-10982117.326628663,25560414.00324961,3.926455974578857e-06,36251910.30599829,-79366913.8634963,34116414.986040756,-27613138.097873446,511048.4863060226,129593909.4848947,-10982117.326604158,3806649.2235064665,30161047.111523148,1572014.5609375704,15809822.003059879,28569953.837996755,-28764591.242746484,-42696154.88930895,-10635398.526349867,-9796015.609202992,15054051.035292223,41706795.215089954,-26173175.87799123,14764125.517580368,47292487.12974192,-17142032.53255109,-29963320.52086449,-43218917.130057506,-83013303.71748543,-2.995133399963379e-06,10154850.436570456,-20768271.698748183,-13153883.645905346,12701650.408922764,9621856.118627727,-17720350.73595955,-502082.1631312594,-10124737.431531517,16324876.194366693,22140477.882169485,-8253348.399619372,23626157.633743525,37872489.5173075,-13037528.502039542,-7358440.491692625,20098411.758015938,-16879444.215586197,-1617463.9572907481,-23198401.70501355,-6239365.1396069415,-142789291.9377772,-35534645.265803084,-22749936.675788563,-10223242.886667397,-6323140.872579027,11036680.793980299,-24843815.384195894,-36064443.03500556,-10635398.526345093,-13589680.206117924,-2763295.559716065,-100207976.24199013,-88069695.62156278,-32495843.54878629,-34547329.13968774,-51871974.669092305,21416770.510724965,-87951387.460629,-6211949.375845815,-23999075.756537773,-34278241.91182445,-46854268.148741245,-6439160.475771225,3850076.061987569,-5337629.209136218,54705317.17444814,-935106.2343907584,-31799738.931985073,3965528.780812633,-18019693.079816982,46896158.384208664,16402671.087714616,25116804.503322266,-12760357.251890654,9167147.677165149,9287388.976164227,5914809.6455187695,-26008907.79675623,52870857.48522669,2.2351741790771484e-08,-26071776.130504925,-39245813.60863993,-14418208.739342429,59789329.68045568,-12956007.303523948,-7.450580596923828e-09,12650238.524173208,-67211124.16880892,-40456215.21564462,-40456215.21564421,54217834.39739335,18351696.979531147,-17146589.134526942,-106766448.9692578,34113926.074596904,-1.4901161193847656e-08,-614486.4053470332,-15538884.790413097,-14063432.195157167,45038682.55867939,-54482638.76699312,-54482638.76699324,68770906.85366304,120794777.64307418,-13671877.867940595,91179257.57091765,97522450.68092841,-31316432.679321907,30161047.111516807,81291418.5754473,30326096.63461104,29598125.84750017,11014864.600068796,0.0,-25062126.890723784,51482.784647278175,-48788804.503471226,53998178.90877606,0.0,0.0,20637815.444026526